svm_type c_svc
kernel_type rbf
gamma 0.125
nr_class 3
total_sv 193
rho 0.487914 0.845761 1.08257
label 1 2 3
nr_sv 74 77 42
SV
8 8 1:-0.524827 2:-0.218747 3:-0.568405 4:-0.672308 5:-0.817228 6:-0.165179 7:-0.460227 8:-0.049936 9:0.0861227 10:0.348558 11:-0.555696 12:-0.264348 13:-0.636161 14:-0.3 15:0.691468 16:-0.598214 17:-0.734432 18:-0.217666 19:-0.651512 20:0.164913 
0.4765562250369912 0 1:0.60005 2:-0.0825856 3:-0.228449 4:-0.237892 5:-0.929782 6:-0.614433 7:-1 8:-0.382948 9:0.45547 10:-0.622522 11:-0.688875 12:-0.640267 13:-0.789948 14:-1 15:-0.218786 16:-0.505155 17:0.594502 18:-0.191393 19:-0.821166 20:-0.125081 
8 0 1:0.0744175 2:-0.216716 3:-0.120046 4:0.592286 5:-0.723379 6:-0.892837 7:-0.722844 8:-0.133863 9:0.0219805 10:0.101609 11:-0.391613 12:-0.440183 13:-0.883238 14:-0.438395 15:-0.0880611 16:-0.449857 17:-0.590919 18:-0.314076 19:-0.552658 20:-0.250466 
8 8 1:-0.329922 2:-0.580211 3:-0.626501 4:-0.166729 5:0.0103774 6:-0.204255 7:0.249516 8:0.283406 9:-0.363421 10:0.0572831 11:-0.609027 12:-0.295886 13:-0.75228 14:-0.404255 15:-0.309017 16:-0.234043 17:-0.674538 18:-0.209022 19:-0.261832 20:0.145068 
8 8 1:-0.24758 2:-0.400858 3:-0.475809 4:-0.46177 5:-0.221104 6:-0.310599 7:-0.0527859 8:-0.0811615 9:0.178142 10:-0.282878 11:-0.512158 12:-0.120901 13:-0.765265 14:-0.63871 15:-0.44127 16:-0.419355 17:-0.20501 18:-0.185498 19:-0.520361 20:-0.0932132 
0.983803223722803 0 1:0.0410754 2:0.0832177 3:-0.463387 4:0.214814 5:-0.155546 6:-0.707812 7:-0.622159 8:-0.121639 9:0.134472 10:-0.570913 11:-0.79671 12:-0.505219 13:-1 14:-1 15:-0.526389 16:0.03125 17:-0.814103 18:0.207078 19:0.0841837 20:0.115822 
3.587068823713274 0 1:-0.182114 2:0.327234 3:-0.812241 4:-0.416659 5:-0.522241 6:-0.447291 7:-0.404389 8:-0.347874 9:-0.472393 10:-0.458886 11:-0.549047 12:0.400124 13:-0.698892 14:-0.42069 15:-0.328079 16:-0.349754 17:-0.355311 18:0.0892701 19:-0.40183 20:0.041338 
8 1.439504909418038 1:-0.102662 2:-0.51309 3:-0.235892 4:0.0457846 5:-0.606539 6:-0.521739 7:-0.814462 8:0.636377 9:0.553415 10:-0.344482 11:-0.581831 12:-0.389451 13:-0.73945 14:-0.699233 15:-0.302302 16:-0.44757 17:-0.574005 18:-0.36852 19:-0.378882 20:-0.133779 
0 8 1:0.520385 2:-0.773783 3:0.114818 4:-0.136976 5:-0.313632 6:-0.631527 7:0.0721003 8:-0.110513 9:-0.792497 10:0.0822281 11:-0.495858 12:-0.172344 13:-0.799261 14:-0.227586 15:-0.253421 16:-0.408867 17:-1 18:-0.0737499 19:0.367246 20:-0.283682 
0.7294310284418193 0 1:-0.481243 2:-0.043074 3:-0.287905 4:-0.383278 5:0.0130763 6:-0.155484 7:-0.141935 8:-0.340217 9:-0.590453 10:0.181141 11:-0.33303 12:-0.618184 13:-0.737097 14:-0.494194 15:0.417778 16:-0.690323 17:-0.424318 18:-0.200748 19:-0.328506 20:-0.123618 
8 0 1:-0.299146 2:-0.334399 3:-0.289371 4:0.0435845 5:-0.311159 6:-0.655072 7:0.0832435 8:-0.170244 9:-0.306085 10:-0.276376 11:-0.621999 12:-0.103816 13:-0.865777 14:-0.638472 15:-0.241224 16:-0.209486 17:-0.529746 18:-0.168469 19:-0.200075 20:0.277002 
0 7.026927041601586 1:0.87275 2:-0.0949604 3:-0.302359 4:-1 5:-0.802374 6:-0.542041 7:-0.407792 8:0.459155 9:-0.158386 10:-0.327473 11:-0.693418 12:-0.408341 13:-0.75051 14:-0.68 15:-0.133968 16:-0.510204 17:-0.320147 18:-0.471985 19:-0.645981 20:0.267304 
8 0 1:-0.427025 2:0.228699 3:-0.436601 4:-0.196423 5:-0.719449 6:0.211336 7:-0.608392 8:-0.0108913 9:-0.123129 10:-0.0364372 11:-0.696987 12:-0.414377 13:-0.67004 14:-0.523887 15:-0.0796221 16:-0.368421 17:-0.662826 18:-0.14305 19:-0.297695 20:0.0768665 
3.468139691798768 0 1:-0.258453 2:-0.479237 3:-0.296294 4:-0.0110942 5:-0.539008 6:-0.114044 7:-0.304415 8:0.0639273 9:-0.0464897 10:-0.287518 11:-0.494688 12:-0.226727 13:-0.586294 14:-0.469374 15:-0.179395 16:-0.492386 17:-0.577248 18:-0.0949894 19:-0.295556 20:-0.0679185 
8 0 1:0.106229 2:-0.134446 3:-0.32152 4:-0.929106 5:-0.31226 6:-0.138816 7:-0.602273 8:-0.214098 9:0.0632205 10:0.385121 11:-0.530326 12:-0.607614 13:-0.530839 14:-0.548684 15:-0.252193 16:-0.605263 17:-0.25641 18:-0.398449 19:-0.600564 20:0.0434763 
8 0 1:-0.431892 2:0.124415 3:-0.441418 4:-0.136976 5:-0.198897 6:-0.355172 7:-0.416301 8:-0.434907 9:-0.24832 10:0.0100796 11:-0.203317 12:-0.00878186 13:-0.718966 14:-0.324138 15:0.0452107 16:-0.710345 17:-0.425641 18:-0.473149 19:-0.581281 20:-0.272848 
4.951440975156665 2.467772051589825 1:-0.264761 2:-0.100096 3:-0.401799 4:-0.584545 5:-0.468695 6:1 7:-0.547399 8:-0.173978 9:-0.321613 10:0.272727 11:-0.498987 12:-0.44349 13:-0.727607 14:-0.423529 15:0.0130719 16:-0.647059 17:-0.172906 18:-0.197323 19:-0.675325 20:-0.200254 
2.602436948929601 0 1:0.0359765 2:0.212133 3:-0.696094 4:-0.336338 5:-0.518184 6:-0.743249 7:-0.501976 8:0.093716 9:0.0694162 10:-0.287801 11:-0.61526 12:-0.241961 13:-0.673627 14:-0.551487 15:-0.23702 16:-0.588101 17:-0.591621 18:-0.192564 19:-0.166394 20:-0.000560081 
0 1.628973179967107 1:-0.0260035 2:0.327234 3:-0.348712 4:-0.976027 5:-0.417937 6:-0.631527 7:0.0721003 8:-0.664356 9:-0.525744 10:0.0822281 11:-0.33629 12:-0.335907 13:-0.698892 14:-0.324138 15:-0.477395 16:-0.1133 17:-0.531136 18:-0.39979 19:-0.40183 20:0.258018 
8 0.7013371260998437 1:-0.283564 2:-0.0409962 3:-0.701368 4:-0.215964 5:-0.659911 6:0.185591 7:0.115012 8:-0.265561 9:-0.158131 10:0.00243848 11:-0.589591 12:-0.364306 13:-0.677053 14:-0.519885 15:-0.126481 16:-0.377522 17:-0.399985 18:-0.237357 19:-0.475093 20:0.103938 
3.22636809292115 0 1:0.0879153 2:-0.34152 3:-0.181257 4:-0.348628 5:-0.804709 6:-1 7:-0.738575 8:-0.855528 9:-0.107012 10:-0.208316 11:-0.375391 12:-0.346074 13:-0.889865 14:-1 15:0.392673 16:0.0378378 17:-0.614137 18:0.0372799 19:-0.531164 20:1 
3.12950708849996 1.229790963833501 1:0.108068 2:-0.0497705 3:-0.82951 4:-0.447918 5:-0.151654 6:-1 7:-1 8:-0.24269 9:-0.0725761 10:-0.569231 11:-0.371958 12:0.799409 13:-1 14:-0.538824 15:-0.821699 16:-0.0117647 17:-0.160181 18:0.537096 19:-0.591837 20:-1 
8 0 1:0.0252723 2:0.17512 3:-0.572874 4:-0.511871 5:-0.641249 6:-0.801064 7:-0.871373 8:0.0759256 9:0.336098 10:-0.659165 11:-0.588515 12:-0.0498899 13:-1 14:-0.635106 15:-0.39539 16:-0.489362 17:-0.272231 18:-0.202735 19:-0.215697 20:0.145068 
4.107727811304326 0 1:0.298 2:0.147376 3:-0.162863 4:-0.0446272 5:-0.748563 6:-1 7:-0.0874786 8:-0.315778 9:0.211101 10:0.0362845 11:-0.624817 12:-0.840481 13:-0.807783 14:-0.815094 15:-0.714046 16:0.132075 17:-0.55104 18:0.0339048 19:-0.509049 20:-0.636298 
4.143125910674866 0 1:0.100437 2:0.0805305 3:-0.648244 4:0.0462091 5:0.0901664 6:-0.34386 7:-0.292929 8:0.877799 9:-0.585958 10:-0.250562 11:-0.881558 12:-0.377036 13:-0.761696 14:-0.77076 15:-0.202339 16:-0.22807 17:-0.721697 18:-0.34402 19:-0.594224 20:0.284628 
2.326167348178615 0 1:-0.0456841 2:-0.566383 3:-0.327252 4:0.0366316 5:0.0282546 6:-0.840171 7:-0.173271 8:-0.209582 9:-0.131655 10:-0.061144 11:-0.395844 12:-0.408776 13:-0.869391 14:-0.455556 15:-0.38471 16:-0.358974 17:-0.771203 18:-0.0127916 19:-0.369876 20:0.527016 
8 0 1:-0.201596 2:-0.187021 3:-0.654156 4:-0.365114 5:-0.238119 6:0.36 7:-0.160631 8:-0.181786 9:-0.306344 10:0.119644 11:-0.670108 12:-0.522584 13:-0.764256 14:-0.287273 15:0.0020202 16:-0.62314 17:-0.193727 18:-0.47645 19:-0.397875 20:0.377102 
8 7.345650032330457 1:-0.600776 2:0.142853 3:-0.608569 4:-0.225966 5:-0.21881 6:-0.413793 7:0.364491 8:-0.319103 9:-0.132888 10:0.0904268 11:-0.694109 12:-0.16491 13:-0.489028 14:-0.631348 15:-0.144828 16:-0.69906 17:-0.291375 18:-0.3331 19:-0.564967 20:0.189074 
6.911459105487992 2.427470854477825 1:-0.617131 2:1 3:-0.624757 4:-0.769675 5:-0.502525 6:-0.0878049 7:-0.4102 8:-0.299147 9:-0.691001 10:0.45122 11:-0.409912 12:-0.0401978 13:-0.751524 14:-0.880488 15:0.293767 16:-0.487805 17:-0.564728 18:0.197619 19:-0.894226 20:-0.454119 
2.971012348184295 0 1:-0.264761 2:-0.0670698 3:-0.737259 4:-0.364424 5:-0.0271017 6:-0.175 7:-0.146524 8:-0.431649 9:0.054838 10:-0.246154 11:-0.641894 12:-0.372468 13:-0.880147 14:-0.452353 15:0.0920915 16:-0.7 17:-0.282655 18:-0.0468996 19:-0.387755 20:0.131993 
8 0 1:-0.222742 2:-0.186463 3:-0.427233 4:-0.24329 5:-0.453845 6:-0.846721 7:-0.65313 8:-0.0928402 9:0.156665 10:-0.137137 11:-0.470353 12:-0.0310706 13:-0.832992 14:-0.477869 15:0.0559199 16:-0.336066 17:-0.60992 18:-0.299406 19:-0.253513 20:-0.402456 
5.096198134567584 8 1:-0.391632 2:-0.249199 3:-0.600807 4:-0.291538 5:-0.225797 6:0.561162 7:0.0532915 8:-0.239604 9:-0.452737 10:-0.0364372 11:-0.624632 12:-0.279951 13:-0.815109 14:-0.324138 15:-0.0648115 16:-0.607985 17:-0.373819 18:-0.2239 19:-0.0870032 20:0.218103 
0 2.819970563439191 1:-0.33568 2:-0.229783 3:0.506131 4:-0.190176 5:0.309549 6:-0.457971 7:0.138999 8:-0.794504 9:-0.905384 10:-0.933668 11:0.235109 12:-0.492061 13:-0.70471 14:-0.928986 15:-0.341063 16:0.0434783 17:-0.827573 18:-0.255671 19:0.257025 20:-0.0634691 
0 0.9284403641226162 1:0.824244 2:-0.455068 3:-0.958474 4:-0.536524 5:-0.71595 6:-1 7:-0.506494 8:1 9:-0.445717 10:-0.532967 11:-0.858685 12:-0.730209 13:-0.376276 14:1 15:-0.690703 16:-0.632653 17:-0.635793 18:0.220268 19:-0.468971 20:0.873234 
8 5.88636331971001 1:0.0635829 2:-0.172438 3:-0.307451 4:-0.599725 5:-0.329989 6:-0.49 7:-0.17562 8:-0.281341 9:-0.23474 10:0.0818182 11:-0.226164 12:-0.285909 13:-0.722159 14:-0.688182 15:0.0677778 16:-0.454545 17:-0.621445 18:-0.312352 19:-0.487477 20:-0.209075 
0 2.824756455116445 1:0.303663 2:-0.626937 3:0.583614 4:-0.470689 5:-0.34603 6:-1 7:-0.17562 8:0.509564 9:-0.48088 10:-0.514569 11:-0.316143 12:-0.65064 13:-0.768466 14:-0.554545 15:-0.483333 16:-0.363636 17:-0.639472 18:-0.21207 19:0.445578 20:-0.675593 
7.773288244368969 5.516549665898049 1:0.619819 2:-0.620977 3:-0.699065 4:-0.211795 5:-0.204013 6:0.191083 7:0.540243 8:-0.353418 9:-0.529481 10:0.166095 11:-0.859036 12:-0.307778 13:-0.740446 14:-0.625478 15:-0.710403 16:-0.235669 17:-0.469541 18:0.365989 19:-0.22657 20:0.00200437 
0 0.4825068506600328 1:0.0508228 2:-0.369058 3:-0.334112 4:0.00176521 5:-0.147731 6:-1 7:-0.238368 8:-0.870568 9:-0.281254 10:-0.567535 11:-0.198919 12:-0.892276 13:-0.839567 14:-0.845669 15:-0.164654 16:0.0393701 17:-0.625278 18:1 19:0.0927206 20:-0.392875 
8 8 1:0.199056 2:-0.455068 3:-0.339699 4:-0.439966 5:-0.543102 6:-0.732857 7:0.209091 8:0.0767392 9:-0.0331384 10:-0.215385 11:-0.619966 12:-0.521277 13:-0.708929 14:-0.393333 15:-0.530899 16:-0.142857 17:-0.546764 18:-0.190581 19:-0.173955 20:-0.106727 
0 0.4845822195159214 1:-0.0897431 2:0.143014 3:-0.239745 4:-0.743975 5:-0.408372 6:-0.183406 7:-0.788805 8:0.166582 9:-0.0369669 10:0.199194 11:-0.851228 12:-0.0662787 13:-0.911026 14:-0.572052 15:-0.205822 16:-0.633188 17:-0.636323 18:0.0134551 19:-0.0152393 20:-0.490427 
5.779516170758608 0 1:0.638896 2:-0.219388 3:-0.146624 4:-0.423481 5:-0.502525 6:-0.543902 7:-0.55765 8:-0.69089 9:-0.360812 10:-0.218574 11:-0.80494 12:-0.141427 13:-0.751524 14:-0.641463 15:-0.0758808 16:-0.341463 17:-0.202001 18:-0.609529 19:-0.0480338 20:0.484607 
8 2.66767828135549 1:-0.0650312 2:-0.455068 3:-0.155575 4:-0.416659 5:-0.574394 6:-0.907882 7:-0.46395 8:-0.229193 9:0.541271 10:-0.323607 11:-0.655426 12:0.236562 13:-0.698892 14:-0.613793 15:-0.365408 16:-0.438424 17:-0.501832 18:-0.4813 19:-0.359103 20:0.258018 
8 0 1:-0.147977 2:-0.0160717 3:-0.71654 4:-0.578982 5:-0.146942 6:-0.646336 7:-0.313991 8:-0.389211 9:-0.323187 10:-0.0911075 11:-0.649139 12:-0.56501 13:-0.759161 14:-0.536643 15:0.00320462 16:-0.319149 17:-0.128084 18:0.232443 19:-0.261832 20:-0.062904 
8 0 1:-0.345644 2:-0.54187 3:-0.550468 4:-0.294731 5:0.251853 6:-0.459091 7:-0.100676 8:-0.248156 9:-0.436128 10:0.0969485 11:-0.59872 12:-0.467703 13:-0.915806 14:-0.230579 15:0.0020202 16:-0.280992 17:-0.557533 18:-0.0525304 19:-0.139821 20:0.377102 
0 3.494391888032808 1:-0.437131 2:0.154977 3:0.197893 4:-0.726994 5:0.0121406 6:-0.487671 7:0.159402 8:-0.16633 9:-0.625868 10:-0.498419 11:-0.6904 12:-0.585171 13:-0.441781 14:-0.865753 15:-0.377169 16:-0.260274 17:-0.266596 18:0.258431 19:0.188146 20:-0.80683 
0 0.3162144325694289 1:0.0233343 2:-0.402047 3:-0.175363 4:-0.781894 5:-0.559278 6:-0.84 7:-0.560331 8:-0.706497 9:-0.477985 10:-0.0013986 11:-0.337314 12:-0.390223 13:-0.912834 14:-0.559786 15:0.475033 16:-0.319786 17:-0.46557 18:0.590186 19:-0.0909091 20:-0.200254 
2.366660564696174 0 1:-0.130328 2:-0.503544 3:-0.293742 4:-0.569948 5:0.0734979 6:-0.280769 7:0.162587 8:0.167931 9:-0.802757 10:0.232249 11:-0.511201 12:-0.674827 13:-0.41226 14:-0.811538 15:-0.708547 16:0.384615 17:-0.771203 18:0.217021 19:-0.666405 20:0.433029 
0.05165640469859865 0 1:0.164867 2:-0.284392 3:-0.402126 4:-0.339637 5:-0.320966 6:-0.415625 7:-0.716619 8:0.380282 9:0.0921663 10:-0.427885 11:-0.417113 12:-0.245819 13:-0.84082 14:-0.770313 15:0.00642361 16:-0.625 17:-0.628205 18:-0.310002 19:-0.322385 20:0.0299115 
8 8 1:0.291659 2:-0.368496 3:-0.29557 4:-0.341653 5:-0.634764 6:-0.886667 7:-0.487052 8:-0.159663 9:0.0934483 10:-0.334266 11:-0.283423 12:0.2549 13:-1 14:-0.70303 15:-0.586667 16:-0.127273 17:-0.603419 18:-0.262211 19:-0.10637 20:-0.39235 
3.97048556923793 0 1:0.149787 2:-0.495533 3:-0.309975 4:-0.0704219 5:-0.0683838 6:-0.682153 7:-0.177955 8:-0.147944 9:-0.176168 10:-0.0664633 11:-0.675315 12:-0.401239 13:-0.653683 14:-0.777904 15:-0.355996 16:-0.150142 17:-0.629258 18:0.0507087 19:-0.410302 20:0.174231 
3.81217401140349 0 1:-0.23778 2:0.190598 3:-0.785812 4:-0.443524 5:-0.423701 6:-0.901579 7:-0.363636 8:-0.150697 9:-0.278786 10:0.5417 11:-0.395358 12:-0.498393 13:-0.946382 14:-0.432632 15:0.236374 16:-0.715789 17:-0.749528 18:0.222046 19:-0.817401 20:0.709054 
8 8 1:0.366644 2:-0.647991 3:-0.51407 4:-0.550266 5:-0.766377 6:-0.751613 7:-0.770571 8:0.0712243 9:0.219243 10:0.25062 11:-0.427277 12:-0.224408 13:-0.884013 14:-0.683871 15:0.020915 16:-0.180266 17:-0.604924 18:-0.0217815 19:-0.605003 20:-0.152831 
0 0.05217028113439341 1:-0.284281 2:0.22901 3:0.115222 4:-0.930084 5:-0.316636 6:-0.951047 7:-0.39862 8:-0.640641 9:-0.567223 10:-0.233186 11:-0.243766 12:-0.414905 13:-0.626636 14:-0.435602 15:-0.642932 16:0.0837696 17:-0.641831 18:0.0845758 19:0.203387 20:-0.308782 
0 6.649867529918523 1:0.0790166 2:-0.470345 3:-0.180156 4:-0.67346 5:-0.268118 6:-0.902857 7:0.0677686 8:-0.0831801 9:-0.375391 10:-0.239161 11:-0.348862 12:-0.205057 13:-0.682468 14:-0.541818 15:-0.488254 16:-0.0025974 17:-0.598268 18:-0.0115059 19:-0.459316 20:-0.001998 
0 5.798889531719891 1:-0.0530163 2:0.228193 3:-0.665769 4:-0.693968 5:-0.563653 6:-0.841189 7:-0.589268 8:0.328598 9:0.712197 10:-0.0282541 11:-0.67564 12:-0.519263 13:-0.913482 14:-0.334183 15:0.351451 16:-0.821656 17:-0.621101 18:-0.406885 19:-0.70536 20:-0.324856 
0 0.9635599550972602 1:0.0488611 2:-0.0375848 3:-0.606714 4:-0.669518 5:-0.0161349 6:-0.0591195 7:0.216695 8:-0.26527 9:-0.231643 10:-0.194001 11:-0.794588 12:-0.109594 13:-0.871855 14:-0.568553 15:-0.189797 16:-0.584906 17:-0.401387 18:0.0339048 19:-0.345399 20:-0.0830145 
3.615856556961538 1.85700450181404 1:-0.0486282 2:-0.954347 3:-0.289371 4:-0.293031 5:1 6:-0.457971 7:-1 8:0.485758 9:-0.748425 10:-0.734671 11:-0.351707 12:-0.191308 13:-1 14:-0.715942 15:-0.560709 16:0.0434783 17:0.379413 18:-0.255671 19:-0.49719 20:0.0162157 
0 8 1:-0.451761 2:-0.189032 3:0.472999 4:-0.581927 5:-0.285186 6:-0.882759 7:0.061271 8:-0.0170066 9:-0.574244 10:-0.540873 11:-0.558718 12:-0.16491 13:-0.744514 14:-0.508464 15:-0.619923 16:0.429467 17:-0.850816 18:-0.38497 19:0.413857 20:-0.431418 
8 5.514553978347953 1:-0.242302 2:-0.0906218 3:-0.442721 4:-0.488827 5:-0.467785 6:-0.549398 7:-0.611537 8:0.0426443 9:0.237772 10:0.21316 11:-0.678816 12:0.0463958 13:-0.795432 14:-0.330924 15:0.217314 16:-0.903614 17:-0.546082 18:-0.483919 19:-0.756168 20:0.375277 
0 0.5869956528088907 1:-0.39866 2:0.043439 3:-0.730374 4:-0.586244 5:-0.318497 6:-0.0929104 7:-0.052578 8:0.0618992 9:-0.0473786 10:0.229621 11:-0.650663 12:-0.317445 13:-0.961987 14:-0.451493 15:0.215837 16:-0.641791 17:-0.711443 18:0.174278 19:-0.643999 20:-0.0277894 
8 5.72903467604433 1:0.0966551 2:-0.0349425 3:-0.398376 4:-0.68136 5:-0.337846 6:-0.332143 7:-0.383117 8:0.34443 9:-0.473346 10:0.0741758 11:-0.473063 12:-0.603156 13:-0.948023 14:-0.5 15:0.27585 16:-0.693878 17:-0.301936 18:-0.666153 19:-0.734486 20:0.70492 
3.724038516510704 0 1:-0.157802 2:0.517419 3:-0.735746 4:-0.743569 5:-0.523267 6:-0.877377 7:-0.603577 8:-0.32323 9:-0.189546 10:0.38058 11:-0.63851 12:-0.500541 13:-0.59918 14:-0.293115 15:0.739162 16:-0.645902 17:-0.570912 18:-0.401126 19:-0.772499 20:0.255531 
0.6209280175613791 0 1:0.064848 2:-0.275998 3:-0.537416 4:0.0143288 5:0.0420289 6:-0.912412 7:-0.320417 8:0.541907 9:-0.0525838 10:-0.0138714 11:-0.501962 12:-0.220609 13:-0.761417 14:-0.44918 15:-0.325631 16:-0.578454 17:-0.749234 18:-0.284874 19:-0.634374 20:-0.125612 
8 0 1:0.503631 2:-0.0328932 3:-0.510005 4:-0.146526 5:-0.321773 6:-0.817561 7:-0.88204 8:0.033834 9:0.576925 10:0.339587 11:-0.712767 12:-0.505852 13:-0.602439 14:-0.90439 15:-0.556423 16:-0.239024 17:-0.767855 18:-0.407742 19:-0.576904 20:-0.293195 
8 0 1:-0.203551 2:-0.3121 3:-0.753781 4:-0.565059 5:-0.705631 6:0.060597 7:-0.458616 8:-0.177824 9:0.251664 10:-0.289552 11:-0.29612 12:-0.0634654 13:-0.726306 14:-0.268657 15:-0.0725705 16:-0.659701 17:-0.680367 18:-0.0294669 19:-0.585745 20:0.481004 
8 0 1:-0.0608702 2:-0.084369 3:-0.333658 4:-0.594032 5:-0.369619 6:-0.65625 7:-0.199866 8:0.0997966 9:-0.00488739 10:-0.394231 11:-0.618076 12:-0.085602 13:-0.588006 14:-0.531618 15:-0.609967 16:-0.0955882 17:-0.715686 18:-0.393647 19:-0.298469 20:0.15625 
8 7.050051234174084 1:-0.38007 2:-0.0825856 3:-0.309288 4:-0.091563 5:-0.00206296 6:-0.518041 7:-0.626054 8:-0.217366 9:-0.60522 10:-0.197859 11:-0.661046 12:-0.212392 13:-0.894974 14:-0.696907 15:-0.45315 16:-0.134021 17:-0.417394 18:-0.106102 19:0.475384 20:0.215017 
0.1077961776001013 0 1:-0.0504084 2:0.224515 3:-0.347514 4:-0.455685 5:-0.655654 6:-0.806718 7:-0.375147 8:-0.670898 9:-0.155873 10:-0.148479 11:-0.520322 12:-0.42445 13:-0.736757 14:-0.290956 15:-0.216767 16:-0.503876 17:-0.108461 18:-0.145993 19:-0.0586932 20:-0.34947 
7.38726579847974 8 1:0.139512 2:-0.267783 3:0.2186 4:-0.602835 5:-0.446526 6:-0.662048 7:-0.271632 8:-0.166993 9:-0.469018 10:-0.558851 11:-0.45116 12:-0.00360895 13:-0.815889 14:-0.763855 15:-0.543507 16:0.301205 17:-0.856657 18:-0.417467 19:0.0972461 20:0.132383 
5.734625274801902 0 1:-0.153856 2:0.253295 3:-0.761781 4:-0.469056 5:-0.397604 6:-0.431899 7:-0.387802 8:0.00606493 9:0.316118 10:-0.212074 11:-0.396078 12:-0.355161 13:-0.793671 14:-0.255696 15:-0.0791561 16:-0.787342 17:-0.518079 18:-0.502761 19:-0.64867 20:0.0218642 
0 2.593390612181226 1:0.621473 2:-0.331096 3:-0.55578 4:-0.417806 5:-0.106733 6:-0.386885 7:-0.801788 8:0.466678 9:-0.0652655 10:-0.249685 11:-0.780116 12:0.0709883 13:-1 14:-0.678689 15:0.118033 16:-0.508197 17:-0.80496 18:-0.129872 19:-0.146872 20:-0.537659 
8 0 1:0.32188 2:-0.205409 3:-0.146319 4:-0.480996 5:-0.403941 6:-0.641534 7:-0.381934 8:-0.298835 9:0.0609441 10:-0.122635 11:-0.82366 12:-0.198995 13:-0.869808 14:-0.749521 15:-0.418956 16:-0.194888 17:-0.543868 18:-0.263332 19:-0.27952 20:0.287093 
8 0 1:0.458639 2:-0.395498 3:-0.350009 4:-0.480319 5:-0.674028 6:-0.930224 7:-0.774423 8:0.0319338 9:-0.0473786 10:-0.11194 11:-0.388785 12:-0.255499 13:-1 14:-0.853731 15:-0.293118 16:-0.350746 17:-0.223115 18:-0.0109446 19:-0.352726 20:0.0132424 
1.322840806044158 0 1:0.375279 2:-0.404609 3:-0.297679 4:0.0700489 5:-0.429375 6:-1 7:-0.810586 8:0.384868 9:0.109729 10:-0.282989 11:-0.795829 12:-0.113411 13:-1 14:-0.846475 15:-0.287728 16:-0.467363 17:-0.565107 18:-0.0916268 19:-0.275324 20:0.349103 
-0.5691308019274195 0 1:-0.130328 2:0.0620094 3:-0.444538 4:0.248934 5:-0.944474 6:-0.280769 7:-1 8:0.0134935 9:0.551018 10:0.58432 11:-0.718844 12:-0.674827 13:-0.608173 14:-0.623077 15:-1 16:0.153846 17:-0.656805 18:-0.101181 19:-0.499608 20:-0.624328 
-0.3598274843075536 1.210514201486505 1:-0.280925 2:-0.00337245 3:-0.745257 4:-0.295409 5:-0.413717 6:-0.783815 7:-0.720441 8:0.758898 9:-0.0924616 10:-0.0475767 11:-0.697239 12:-0.00216373 13:-0.764451 14:0.246243 15:-0.824791 16:-0.16763 17:-0.587372 18:-0.736667 19:-0.197829 20:0.0125308 
-0 7.939515320210962 1:0.487862 2:-0.416436 3:-0.612666 4:-0.463273 5:-0.478781 6:-0.892529 7:-0.166144 8:0.00816813 9:-0.0366951 10:-0.316092 11:-0.606669 12:0.515981 13:-0.882902 14:-0.831034 15:-0.651596 16:-0.172414 17:-0.555556 18:-0.882057 19:0.146493 20:0.447613 
-8 0 1:-0.343629 2:-0.2547 3:-0.293742 4:-0.679132 5:-0.00793991 6:-0.856154 7:-0.255944 8:-0.0791687 9:0.0303353 10:-0.366272 11:-0.511201 12:-0.259787 13:-0.843269 14:-0.924615 15:-0.475385 16:0.153846 17:-0.450888 18:-0.133001 19:-0.466248 20:0.263852 
-5.494220647747172 0 1:0.103535 2:-0.472945 3:-0.388161 4:0.00584168 5:-0.311413 6:-0.431611 7:-0.558994 8:0.0881303 9:0.0316014 10:-0.165303 11:-0.609027 12:-0.295886 13:-0.93807 14:-0.761702 15:-0.631476 16:0.167173 17:-0.566051 18:-0.158728 19:-0.472737 20:0.145068 
-5.973484519998706 0 1:0.462634 2:-0.182554 3:-0.456764 4:-0.444533 5:-0.647336 6:-1 7:-0.754914 8:-0.0741599 9:0.42718 10:-0.443347 11:-0.732874 12:-0.312422 13:-1 14:-0.801351 15:-0.692793 16:0.135135 17:-0.316701 18:-0.655886 19:-0.0623276 20:0.375874 
-0 1.221218142693973 1:-0.386148 2:-0.237515 3:-0.614972 4:-0.103587 5:-0.589999 6:0.15969 7:0.0872445 8:-0.479987 9:0.0232314 10:-0.205247 11:-0.514742 12:-0.175641 13:-0.905233 14:-0.908837 15:0.151352 16:-0.47907 17:-0.206838 18:-0.214402 19:-0.166271 20:-0.167615 
-0 8 1:0.175589 2:-0.276432 3:-0.498761 4:-0.743324 5:-0.258879 6:-0.803675 7:0.0155094 8:0.0990217 9:-0.537086 10:-0.13507 11:-0.453977 12:0.0663452 13:-1 14:-0.691339 15:-0.641995 16:-0.149606 17:-0.250555 18:-0.780598 19:0.548021 20:-0.104253 
-1.75709020990356 8 1:0.0871266 2:-0.277114 3:-0.418711 4:-0.90675 5:-0.524162 6:-0.104604 7:0.246945 8:-0.696121 9:-0.261937 10:0.0451905 11:-0.517702 12:-0.144783 13:-0.924954 14:-0.602947 15:-0.525517 16:-0.00552486 17:-0.60561 18:-0.331189 19:0.18202 20:0.320867 
-0 0.742816591576181 1:-0.222895 2:-0.363693 3:-0.605315 4:-0.377649 5:-0.372196 6:0.282033 7:0.00042983 8:-0.161389 9:-0.143964 10:-0.00454628 11:-0.572561 12:0.0236986 13:-0.975916 14:-0.698818 15:-0.337168 16:-0.375887 17:-0.282779 18:-0.510782 19:-0.0362812 20:0.0670783 
-8 0 1:-0.0444529 2:-0.354238 3:-0.400121 4:-0.290039 5:-0.416609 6:-0.524 7:-0.0766942 8:0.0836922 9:-0.274122 10:-0.134545 11:-0.721864 12:-0.278362 13:-0.925909 14:-0.643636 15:-0.448889 16:-0.105455 17:-0.394312 18:-0.161929 19:-0.148423 20:0.260776 
-8 0.04795217535448481 1:-0.223104 2:-0.342408 3:-0.453804 4:0.0735685 5:-0.320042 6:-0.582123 7:0.35094 8:-0.299695 9:-0.432752 10:-0.181779 11:-0.772205 12:-0.272629 13:-0.943087 14:-0.452514 15:-0.57666 16:0.0726257 17:-0.468271 18:-0.151845 19:-0.176263 20:0.645681 
-1.875928896748147 1.76437819719943 1:-0.542673 2:-0.270058 3:-0.766881 4:0.446768 5:-0.468175 6:0.887156 7:-0.667223 8:-0.860706 9:-0.0269876 10:-0.244178 11:-0.391187 12:-0.468332 13:-0.71961 14:-0.46055 15:0.946585 16:-0.724771 17:-0.0722183 18:0.0754358 19:-0.681708 20:-0.552544 
-0 1.979066506177113 1:-0.435326 2:0.00932203 3:-0.763689 4:-0.381247 5:-0.247888 6:-0.44695 7:0.430348 8:-0.070148 9:-0.198342 10:-0.120148 11:-0.515423 12:-0.417234 13:-1 14:-0.746396 15:-0.243623 16:-0.268022 17:-0.340253 18:-0.450263 19:-0.262515 20:0.448664 
-1.535468542520772 0 1:-0.052022 2:-0.406777 3:-0.709235 4:0.888532 5:-0.452705 6:-0.263054 7:-0.285266 8:0.28509 9:-0.436826 10:0.0221043 11:-0.460398 12:-0.145084 13:-0.966544 14:-0.356322 15:-0.104105 16:-0.566502 17:-0.70696 18:-0.37262 19:-0.430314 20:0.402471 
-8 5.175465956222421 1:0.0607248 2:-0.361707 3:-0.401932 4:-0.394906 5:-0.274228 6:-0.406349 7:-0.385859 8:0.102234 9:-0.256619 10:0.220513 11:-0.585689 12:-0.41587 13:-0.159127 14:-0.253333 15:-0.566984 16:-0.352381 17:-0.886691 18:0.0983268 19:-0.284095 20:-0.211455 
-8 0 1:0.10107 2:0.150027 3:-0.663268 4:-0.243885 5:-0.642209 6:-0.23413 7:-0.917468 8:-0.00600875 9:0.148333 10:-0.250197 11:-0.360252 12:0.0361559 13:-0.860922 14:-0.732423 15:0.0862344 16:-0.754266 17:-0.878183 18:0.0839845 19:-0.585568 20:0.092365 
-0 5.289940841456588 1:-0.188501 2:-0.511084 3:-0.485664 4:-0.513701 5:-0.313948 6:-0.0933333 7:0.0258953 8:-0.062321 9:0.126267 10:-0.167832 11:-0.741496 12:0.154285 13:-0.876515 14:-0.524848 15:-0.816296 16:-0.127273 17:-0.423155 18:-0.563057 19:0.156463 20:0.0741683 
-3.031303526541635 0 1:-0.598901 2:0.369329 3:-0.310813 4:-0.758788 5:-0.681978 6:-0.52956 7:-0.315609 8:-0.315778 9:0.347329 10:-0.13643 11:-0.455046 12:-0.109594 13:-1 14:-0.691824 15:-0.380433 16:-0.509434 17:-0.0272537 18:-0.538459 19:-0.454499 20:-0.0830145 
-7.721964590911239 8 1:-0.202363 2:-0.310924 3:0.0482297 4:-0.52198 5:-0.527915 6:-0.687029 7:0.0117916 8:-0.502805 9:-0.494269 10:0.302221 11:-0.275757 12:-0.250704 13:-0.829498 14:-1 15:-0.112227 16:-0.146444 17:-0.452419 18:-0.0379401 19:-0.0564427 20:-0.430553 
-8 8 1:-0.375838 2:0.289403 3:-0.710969 4:-0.380431 5:-0.709233 6:-0.806218 7:-0.373528 8:0.28796 9:-0.153118 10:-0.146273 11:-0.183061 12:-0.207514 13:-0.47215 14:-0.492228 15:0.334945 16:-0.689119 17:-0.815066 18:-0.357557 19:-0.550597 20:-0.119207 
-0 8 1:-0.111544 2:-0.604701 3:-0.738161 4:-0.838101 5:-0.733708 6:0.0246575 7:-0.148194 8:0.509445 9:-0.244373 10:-0.0684932 11:1 12:-0.114089 13:-0.0829256 14:-0.961644 15:-0.495803 16:-0.835616 17:-0.55763 18:-0.923464 19:-0.0155358 20:-0.656193 
-2.114531422398856 0.3637172370968168 1:-0.42858 2:-0.297203 3:-0.29557 4:0.0884665 5:-0.121459 6:0.246667 7:-0.193939 8:-0.208334 9:-0.366015 10:0.497902 11:-0.316143 12:-0.348793 13:-0.320833 14:-0.70303 15:-0.357037 16:-0.454545 17:-0.639472 18:-0.613198 19:-0.0538033 20:-0.458996 
-8 0 1:0.085876 2:-0.231001 3:-0.302359 4:-0.0344249 5:-0.341447 6:-0.287619 7:-0.539394 8:-0.0762271 9:-0.445717 10:0.307692 11:-0.619966 12:-0.600332 13:-0.805952 14:-1 15:0.371217 16:-0.485714 17:-0.263492 18:-0.269374 19:-0.504373 20:0.102731 
-5.25554766491349 0 1:-0.0757086 2:0.147376 3:-0.754664 4:-0.178532 5:-0.448933 6:-0.823585 7:-0.657804 8:-0.0884932 9:-0.299758 10:-0.309144 11:-0.522954 12:-0.448934 13:-0.807783 14:-0.630189 15:-0.0706499 16:-0.207547 17:-0.10208 18:-0.278294 19:-0.181748 20:-0.0138541 
-0.2283726235835399 0 1:-0.404573 2:0.469208 3:-0.806447 4:-0.642737 5:-0.795172 6:-0.065 7:-0.798485 8:-0.0379855 9:-0.0460315 10:-0.237179 11:-0.234344 12:0.0914001 13:-0.490625 14:-0.673333 15:-0.115926 16:-0.3 17:-0.504274 18:-0.663339 19:-0.710884 20:0.207459 
-8 8 1:-0.106565 2:-0.297039 3:-0.335245 4:-0.46477 5:-0.419612 6:-0.399541 7:-0.112594 8:0.207603 9:-0.523786 10:-0.286168 11:-0.267364 12:-0.277947 13:-0.906537 14:-0.640367 15:-0.0267074 16:-0.752294 17:-0.29052 18:-0.379973 19:0.193597 20:0.0527683 
-0 8 1:0.277142 2:-0.447251 3:-0.651443 4:-0.65374 5:-0.261723 6:-0.304186 7:-0.268922 8:0.267058 9:-0.136283 10:0.192129 11:-0.154828 12:-0.342944 13:-1 14:-0.772093 15:-0.29509 16:-0.609302 17:-0.169946 18:-0.830087 19:-0.193166 20:-0.0312246 
-8 0 1:-0.00737898 2:-0.569955 3:-0.273528 4:-0.354799 5:-0.183042 6:-0.899732 7:-0.286863 8:0.259848 9:0.261502 10:-0.263766 11:-0.757812 12:-0.219045 13:-0.890751 14:-0.789812 15:-0.553053 16:-0.00268097 17:-0.521551 18:-0.194595 19:-0.395415 20:0.156358 
-8 0 1:-0.271295 2:-0.27838 3:-0.062616 4:-0.0546388 5:-0.653353 6:-0.563084 7:-0.717502 8:-0.400744 9:-0.00470133 10:-0.40115 11:-0.452983 12:-0.49431 13:-1 14:-0.633645 15:-0.114746 16:-0.35514 17:-0.0548766 18:-0.364367 19:0.0943162 20:0.180054 
-0 8 1:-0.424715 2:-0.223643 3:-0.500766 4:-0.634718 5:-0.83405 6:-0.762288 7:-0.385208 8:0.188871 9:0.318034 10:-0.22425 11:-0.539356 12:0.323541 13:-0.784163 14:-0.584746 15:-0.550471 16:-0.338983 17:-0.344633 18:-0.373541 19:-0.191456 20:-0.000666706 
-8 2.938078138498969 1:0.375595 2:-0.666734 3:-0.480222 4:0.184341 5:-0.339908 6:-0.714504 7:-0.261624 8:-0.272981 9:0.516836 10:-0.0217264 11:-0.722014 12:0.113578 13:-0.533397 14:-0.251908 15:-0.652926 16:-0.175573 17:-0.90918 18:-0.0781054 19:-0.735161 20:-0.419314 
-8 7.113958774743191 1:-0.304145 2:-0.356447 3:-0.425423 4:-0.716039 5:-0.153993 6:-0.561033 7:-0.318822 8:-0.283055 9:0.356923 10:0.117371 11:-0.6779 12:0.0933486 13:-0.856514 14:-0.539906 15:-0.110589 16:-0.774648 17:-0.469363 18:-0.0107997 19:-0.633515 20:0.393316 
-8 0 1:0.368128 2:-0.206105 3:-0.617673 4:-0.239699 5:-0.625258 6:-0.307407 7:0.194164 8:-0.484137 9:-0.28336 10:0.017094 11:-0.667574 12:-0.12893 13:-0.748457 14:-0.879012 15:-0.532236 16:0.185185 17:-0.559354 18:0.010779 19:-0.464601 20:-0.0369075 
-0 1.917260241835133 1:-0.377253 2:-0.24742 3:-0.47747 4:-0.21855 5:-0.60047 6:-0.0327586 7:0.459248 8:-0.314907 9:-0.0989377 10:0.104775 11:-0.575642 12:-0.24731 13:-1 14:-0.887356 15:-0.651596 16:0.0344828 17:-0.760684 18:-0.216392 19:0.246188 20:0.19482 
-2.849691819693676 0 1:-0.353693 2:-0.690955 3:-0.623002 4:-0.438726 5:-0.604154 6:-0.725505 7:-0.778148 8:-0.0797355 9:0.092244 10:0.108539 11:-0.638835 12:-0.300793 13:0.19633 14:0.114862 15:-0.276983 16:0.188991 17:-0.585227 18:-0.425514 19:-0.554391 20:0.1133 
-8 8 1:0.270318 2:-0.392827 3:-0.700651 4:-0.214666 5:-0.419869 6:-0.604233 7:-0.16835 8:0.195713 9:0.0986576 10:0.162393 11:-0.962742 12:0.251706 13:-0.946098 14:-0.118519 15:-0.438683 16:-0.460317 17:-0.685253 18:-0.251864 19:-0.357521 20:-0.0950901 
-8 3.235783334949527 1:-0.493643 2:-0.25122 3:-0.688131 4:-0.443966 5:-0.17708 6:0.383136 7:-0.105702 8:0.0253733 9:-0.226001 10:-0.133364 11:-0.511201 12:-0.0240251 13:-0.849297 14:-0.449112 15:-0.394675 16:-0.431953 17:-0.26081 18:-0.602962 19:-0.384132 20:0.530631 
-0 8 1:-0.207911 2:-0.52777 3:-0.41994 4:-0.511871 5:-0.0968861 6:-0.522553 7:0.474919 8:-0.0322899 9:-0.435842 10:-0.324823 11:-0.368355 12:-0.0233981 13:-0.942199 14:-0.777589 15:-0.656044 16:0.242553 17:-0.578105 18:-0.393431 19:-0.0649877 20:0.207459 
-2.836038470292709 8 1:0.8528 2:-0.651544 3:-0.65235 4:-0.409702 5:-0.937384 6:-1 7:-0.759385 8:-0.417547 9:0.073855 10:-0.908917 11:-0.00604008 12:0.415585 13:-1 14:-0.707463 15:-0.698397 16:0.313433 17:-0.52647 18:-0.39168 19:-0.395878 20:0.601364 
-0 1.952586251175529 1:-0.687751 2:-0.208729 3:-0.442721 4:-0.545831 5:-0.38275 6:-0.699598 7:-0.0288426 8:-0.215371 9:0.303014 10:-0.117702 11:-0.396956 12:-0.220296 13:-0.754518 14:-0.685141 15:-0.452209 16:-0.180723 17:-0.283287 18:-0.417467 19:-0.303336 20:-0.0221866 
-8 0 1:-0.183039 2:-0.291796 3:-0.380932 4:-0.51044 5:-0.194745 6:-0.20237 7:-0.140457 8:-0.00626855 9:0.140888 10:-0.436019 11:-0.596817 12:0.0264887 13:-0.903436 14:-0.907109 15:-0.569036 16:-0.317536 17:-0.43614 18:-0.273855 19:-0.30119 20:0.356859 
-8 0 1:-0.533854 2:-0.606242 3:-0.345479 4:-0.343813 5:-0.306431 6:-0.217573 7:-0.443515 8:-0.469203 9:0.0721642 10:-0.0041841 11:-0.727532 12:-0.250704 13:-0.573745 14:-0.261925 15:-0.33417 16:0.0041841 17:-0.352859 18:-0.0725563 19:-0.310477 20:0.121573 
-0 0.860515436331141 1:-0.051395 2:-0.303215 3:-0.915093 4:0.594246 5:-0.892962 6:-0.549398 7:-0.854326 8:-0.989417 9:-0.240671 10:-0.558851 11:-0.0283689 12:-0.253633 13:-1 14:-0.173494 15:0.186881 16:-0.638554 17:0.433426 18:0.280278 19:-0.164003 20:-0.596301 
-0 1.292827519161485 1:-0.0831112 2:-0.0926594 3:-0.497051 4:0.33527 5:-0.471589 6:-0.761022 7:-0.304676 8:-0.760666 9:0.199349 10:-0.0641435 11:-0.340708 12:0.119246 13:-0.934904 14:-0.561661 15:-0.273695 16:-0.194888 17:-0.61989 18:-0.791975 19:-0.00241247 20:-0.415559 
-7.496946161765655 0 1:0.473341 2:-0.309727 3:-0.266028 4:-0.0417319 5:-0.690256 6:-1 7:-0.869287 8:0.316524 9:0.0100709 10:-0.010395 11:-0.433756 12:0.147486 13:-0.889865 14:-1 15:-0.344625 16:-0.578378 17:-0.356895 18:-0.588805 19:-0.109211 20:-0.307692 
-3.143681853479225 0 1:0.282878 2:-0.334098 3:-0.588292 4:-0.784493 5:-0.241796 6:-0.417899 7:-0.341351 8:-0.251513 9:0.550613 10:-0.287638 11:-0.461916 12:-0.249352 13:-1 14:-0.771206 15:-0.587203 16:0.0272374 17:-0.629652 18:-0.442289 19:-0.39252 20:0.110473 
-8 0 1:0.040332 2:-0.129565 3:-0.680467 4:-0.00763232 5:-0.321463 6:-0.663063 7:-0.346437 8:-0.218858 9:0.244237 10:-0.175329 11:-0.712608 12:-0.156627 13:-1 14:-0.646847 15:-0.726927 16:-0.135135 17:-0.535536 18:0.375167 19:-0.374885 20:-0.268065 
-2.280270047142911 8 1:-0.54158 2:-0.587739 3:-0.491023 4:-0.582262 5:-0.511262 6:0.124812 7:0.0909091 8:-0.10843 9:0.124293 10:-0.174089 11:-0.809395 12:-0.279951 13:-0.387218 14:-0.557895 15:0.0255639 16:-0.458647 17:-0.0160015 18:-0.59284 19:0.0434249 20:-0.101215 
-8 0 1:0.0541061 2:0.0805305 3:-0.510676 4:-0.285813 5:-0.528951 6:-0.234503 7:-0.222222 8:-0.202357 9:-0.0792821 10:0.017094 11:-0.407987 12:-0.668292 13:-0.880848 14:-0.59883 15:-0.11371 16:-0.473684 17:-0.130304 18:-0.489165 19:-0.49278 20:-0.294136 
-8 4.039280282701718 1:-0.152093 2:0.0232286 3:0.0767844 4:-0.679132 5:-0.496567 6:-1 7:-0.893706 8:0.423855 9:-0.052974 10:-0.195266 11:-0.232366 12:-0.423979 13:-1 14:-0.956923 15:-0.467057 16:-0.287912 17:-0.346295 18:-0.451204 19:-0.161247 20:-0.0986706 
-1.100786947895793 0 1:0.0807005 2:-0.488435 3:-0.726712 4:-0.330163 5:-0.103392 6:-0.144886 7:-0.0688109 8:-0.236096 9:-0.0984883 10:0.123577 11:-0.718344 12:-0.234738 13:-0.730295 14:-0.575451 15:-0.0881134 16:-0.133574 17:-0.670709 18:-0.358692 19:-0.165009 20:0.0116129 
-1.567511302155769 8 1:0.30818 2:-0.241241 3:-0.271042 4:-0.352753 5:-0.502988 6:-0.798925 7:-0.263278 8:-0.0523775 9:-0.384718 10:-0.048525 11:-0.205319 12:-0.320664 13:-0.926971 14:-0.789247 15:-0.293827 16:-0.397849 17:-0.381674 18:-0.443905 19:0.0258942 20:-0.233977 
-8 0.5619176350725656 1:-0.146321 2:0.1345 3:-0.678646 4:0.138845 5:-0.0952268 6:-0.79337 7:-0.599196 8:-0.932754 9:-0.261937 10:-0.291968 11:0.237919 12:-0.419947 13:-0.887431 14:-0.0254144 15:-0.246409 16:-0.668508 17:-0.0140246 18:-0.392134 19:-0.520803 20:-0.286675 
-0 8 1:0.120277 2:-0.702698 3:-0.566466 4:-0.615327 5:-0.508054 6:0.036272 7:-0.0254179 8:-0.365014 9:-0.42818 10:-0.0776981 11:-0.23661 12:0.268079 13:-0.79471 14:-0.605038 15:-0.503722 16:0.0277078 17:-0.430601 18:-0.548027 19:0.398242 20:-0.427771 
-7.080335717442344 0 1:0.146339 2:-0.485116 3:-0.34687 4:-0.476671 5:-0.446949 6:-0.157881 7:-0.13522 8:-0.121307 9:-0.34428 10:0.21243 11:-0.67649 12:0.165612 13:-0.973013 14:-0.428874 15:-0.478087 16:-0.221192 17:-0.637562 18:-0.316337 19:-0.264766 20:0.372528 
-8 0 1:-0.0444529 2:-0.0833206 3:-0.105476 4:-0.685749 5:-0.634764 6:-0.66 7:-0.340496 8:-0.062321 9:0.159086 10:0.497902 11:-0.774215 12:-0.147562 13:-1 14:-0.643636 15:-0.265185 16:-0.381818 17:-0.675524 18:-0.312352 19:-0.369202 20:-0.0591227 
-8 0 1:0.207175 2:0.119281 3:-1 4:-0.666693 5:-0.411005 6:-0.289873 7:-0.693901 8:-0.00410055 9:-0.0883013 10:-0.0150925 11:-0.484917 12:-0.155522 13:-0.806566 14:-0.689873 15:0.294937 16:-0.734177 17:-0.246998 18:-0.272366 19:-0.725523 20:0.133221 
-6.226845975884821 0 1:-0.713011 2:0.590435 3:-0.719653 4:-0.249063 5:-0.824804 6:-0.143511 7:-0.630812 8:0.462658 9:-0.0618772 10:-0.16148 11:-0.145052 12:-0.266611 13:-0.377863 14:-0.850382 15:0.156913 16:-0.816794 17:-0.455079 18:-0.330724 19:-1 20:-0.0835424 
-0 8 1:0.0494209 2:-0.577801 3:-0.795749 4:-0.660204 5:-0.230423 6:0.44077 7:-0.184883 8:0.50556 9:-0.297954 10:0.0579084 11:-0.458207 12:-0.0611586 13:-0.901886 14:-0.496629 15:-0.367505 16:-0.229535 17:-0.675351 18:-0.604023 19:-0.303895 20:0.36514 
-6.32767075297852 0 1:-0.0288802 2:0.00531515 3:-0.928788 4:-0.627625 5:-0.107586 6:0.102703 7:-0.287023 8:-0.0741599 9:-0.421008 10:0.349461 11:-0.577014 12:-0.541867 13:-0.699631 14:-0.662899 15:0.824625 16:-0.675676 17:-0.56152 18:-0.605067 19:-0.616407 20:0.524476 
-0 8 1:0.140488 2:-0.30249 3:-0.556767 4:-0.389836 5:-0.877304 6:-0.617391 7:-0.381539 8:0.0612861 9:0.0825367 10:-0.204013 11:-0.305682 12:-0.134696 13:-0.94789 14:-0.849616 15:0.240352 16:-0.723785 17:0.156273 18:-0.495476 19:-0.689441 20:-0.133779 
-8 5.930526451370029 1:-0.264761 2:0.0237514 3:-0.852573 4:-0.646216 5:-0.175007 6:0.5125 7:-0.466578 8:-0.136401 9:-0.283606 10:0.3125 11:-0.479139 12:-0.695954 13:-0.925092 14:-0.243382 15:0.560131 16:-0.757353 17:-0.628205 18:-0.180732 19:-0.617347 20:0.439248 
-8 8 1:0.148517 2:-0.481491 3:-0.409447 4:-0.267803 5:-0.282472 6:-0.470755 7:-0.353631 8:0.0125222 9:-0.435987 10:-0.13643 11:-0.556909 12:-0.240109 13:-0.647602 14:-0.35283 15:-0.0944794 16:-0.264151 17:-0.77552 18:-0.252277 19:-0.290848 20:0.504849 
-0 4.403262751349662 1:-0.478411 2:0.12697 3:-0.684975 4:-0.686833 5:-0.454719 6:-0.528967 7:0.0964049 8:0.0800143 9:0.117422 10:0.337338 11:-0.617376 12:-0.317367 13:-0.897355 14:-0.703778 15:0.0307305 16:-0.546599 17:-0.250791 18:-0.589706 19:-0.606744 20:0.0708108 
-8 0 1:-0.369098 2:-0.0224015 3:-0.437786 4:-0.374394 5:-0.199987 6:-0.441791 7:-0.278155 8:-0.537409 9:-0.0877898 10:-0.043628 11:-0.570085 12:-0.410364 13:-0.771922 14:-0.48806 15:0.187562 16:-0.507463 17:-0.245312 18:-0.165297 19:-0.611636 20:0.136338 
-0 2.219319974646728 1:-0.0270512 2:-0.663721 3:-0.777502 4:-0.734823 5:-0.295432 6:-0.497987 7:-0.837706 8:0.671665 9:0.379787 10:0.351575 11:-0.699334 12:0.294742 13:-0.45302 14:-0.868456 15:-0.186279 16:-0.516779 17:-0.520909 18:-0.548587 19:0.0478017 20:-0.668325 
-4.329605435486293 8 1:-0.114016 2:-0.437842 3:-0.305421 4:0.0480999 5:-0.665749 6:-0.744419 7:0.0465935 8:-0.0593276 9:-0.0351355 10:-0.0825302 11:-0.347073 12:-0.359565 13:-0.767938 14:-0.642825 15:-0.0678815 16:-0.480638 17:-0.539279 18:-0.611827 19:-0.051648 20:0.0939038 
-0 6.8885806879908 1:-0.847308 2:-0.689844 3:-0.391316 4:-0.0721959 5:-0.21393 6:-0.45 7:-0.466578 8:0.0407472 9:0.453007 10:-0.461538 11:-0.419594 12:0.189056 13:-0.700368 14:-0.855882 15:-0.888562 16:0.5 17:-0.737557 18:-0.484896 19:0.147959 20:-0.126748 
-7.017299887523703 0 1:0.20586 2:0.324574 3:-0.375814 4:-0.464343 5:-0.453845 6:-0.141639 7:-0.524292 8:-0.165248 9:-0.473617 10:0.140479 11:-0.249094 12:-0.609404 13:-1 14:-0.742951 15:0.242259 16:-0.72459 17:-0.141824 18:-0.563879 19:-0.544998 20:-0.249226 
-8 1.26358443176844 1:-0.474069 2:-0.407896 3:-0.730785 4:-0.0699987 5:-0.813745 6:0.115439 7:-0.193939 8:-0.0802525 9:-0.345287 10:-0.132794 11:-0.679501 12:0.0404303 13:-0.356579 14:-0.312281 15:-0.202339 16:-0.0526316 17:-0.728655 18:0.178502 19:-0.117436 20:-0.0626304 
-3.573611179972768 2.0578013259944 1:-0.797375 2:0.780595 3:-0.93494 4:-0.400207 5:-0.792206 6:-0.0571429 7:-1 8:0.108232 9:0.236858 10:1 11:-0.771191 12:-0.456173 13:-0.486345 14:-0.341176 15:0.273576 16:-0.89916 17:-0.600086 18:-0.380611 19:-0.854227 20:0.034965 
-8 0 1:-0.418903 2:-0.170642 3:-0.914849 4:-0.529039 5:-0.16324 6:-0.710078 7:-0.312661 8:-0.0483611 9:0.347857 10:0.182667 11:-0.771425 12:-0.252857 13:-0.736757 14:-0.594832 15:0.174849 16:-0.627907 17:-0.569602 18:-0.103237 19:-0.417286 20:0.389314 
-0 6.915770371760331 1:-0.0816266 2:-0.3294 3:-0.370688 4:-0.866122 5:-0.216669 6:-0.341935 7:-0.219941 8:0.130793 9:-0.0441789 10:-0.194676 11:-0.564177 12:0.112091 13:-0.760997 14:-0.942522 15:-0.466667 16:-0.331378 17:-0.616212 18:-0.487037 19:0.27177 20:0.0956668 
-1.781159519330924 0 1:-0.167923 2:-0.225909 3:-0.689336 4:-0.00984658 5:-0.598099 6:-1 7:-0.371901 8:-0.646374 9:0.11689 10:0.783217 11:-0.573224 12:-0.0756937 13:-0.470779 14:-0.363636 15:0.279365 16:-1 17:-0.381951 18:-0.247885 19:-0.324145 20:-0.259059 
-1.449248867194791 2.482654538378684 1:-0.807995 2:-0.140618 3:-0.71745 4:-0.94171 5:-0.498565 6:-0.541104 7:-1 8:0.397218 9:0.641099 10:0.460123 11:-0.471711 12:-0.542617 13:1 14:-0.639264 15:0.394683 16:-0.852761 17:-0.708038 18:-0.301278 19:-0.893577 20:-0.584109 
-8 8 1:-0.046477 2:-0.0556044 3:-0.463961 4:-0.783458 5:-0.156321 6:-0.474473 7:-0.377049 8:-0.135157 9:-0.230128 10:-0.0567465 11:-0.577822 12:-0.337247 13:-0.904567 14:-0.219672 15:0.277752 16:-0.578454 17:-0.41488 18:-0.0911209 19:-0.674999 20:-0.0226004 
-0.366612166179355 -7.632168253474844 1:0.00226526 2:-0.595866 3:-0.605115 4:-0.502076 5:-0.232444 6:-1 7:-0.607862 8:-0.334616 9:0.654029 10:-0.208316 11:-0.200298 12:1 13:-0.77973 14:-0.788108 15:-0.754234 16:-0.416216 17:-0.614137 18:-0.857127 19:0.0314396 20:-0.188811 
-0.954252374055002 -8 1:-0.129365 2:-0.230411 3:-0.406124 4:-0.637757 5:-0.657728 6:-1 7:-0.643636 8:-0.125337 9:0.103121 10:-0.69166 11:-0.156678 12:0.698668 13:-1 14:-1 15:-0.585216 16:-0.0147368 17:-0.54915 18:-0.622698 19:0.0225564 20:0.361796 
-1.035291671001905 -4.289342406995367 1:-0.215271 2:-0.2543 3:-0.504589 4:-0.110987 5:-0.96069 6:-1 7:-0.786002 8:0.329201 9:0.505861 10:-1 11:-0.178605 12:0.315448 13:-1 14:-1 15:-1 16:0.168142 17:-0.262991 18:-0.775602 19:0.381615 20:-0.285599 
-0 -2.630170202786478 1:-0.51385 2:-0.838975 3:-0.928124 4:-0.993507 5:-0.691736 6:-0.355172 7:-0.374608 8:-0.545675 9:0.974746 10:0.0258621 11:-0.156776 12:-0.223457 13:-1 14:-0.746552 15:-0.934674 16:-0.689655 17:1 18:-0.572999 19:0.271112 20:-0.121172 
-8 -8 1:0.000771368 2:0.0725313 3:-0.104371 4:-0.290639 5:-0.286343 6:-0.347674 7:-0.0158562 8:-0.162493 9:-0.58964 10:-0.254919 11:-0.0669419 12:0.00453136 13:-0.763081 14:-0.430233 15:-0.911886 16:-0.0930233 17:-0.723315 18:-0.541485 19:-0.29402 20:-0.363677 
-0.2288278437626053 -0 1:-0.157802 2:-0.909629 3:-0.684327 4:-0.417806 5:0.674268 6:-0.846721 7:-0.306259 8:-0.32323 9:-0.864215 10:-0.324716 11:-0.0278357 12:-0.0650902 13:-0.916496 14:-0.759016 15:0.366485 16:-0.163934 17:-0.80496 18:-0.129872 19:0.492974 20:0.453829 
-0 -8 1:-0.301234 2:-0.647473 3:-0.493929 4:-0.581024 5:-0.595708 6:-0.62058 7:-0.158893 8:-0.166012 9:-0.434506 10:-0.124415 11:-0.351707 12:0.145536 13:-1 14:-0.289855 15:-0.428921 16:-0.026087 17:-0.172352 18:-0.447515 19:0.307306 20:0.0799635 
-5.828595382723413 -8 1:0.325026 2:-0.630713 3:-0.312485 4:-0.474334 5:-0.310686 6:-0.577401 7:0.0929635 8:-0.378271 9:-0.668615 10:-0.3794 11:-0.707113 12:-0.215776 13:-1 14:-0.667797 15:-0.400628 16:0.559322 17:-0.327828 18:-0.280058 19:0.372074 20:-0.140453 
-5.359564025434923 -0 1:0.195426 2:-1 3:0.573175 4:-0.759535 5:-0.173541 6:-1 7:-0.0893876 8:0.10202 9:-0.494269 10:-0.310589 11:-0.546822 12:-0.320166 13:-1 14:-0.753975 15:-0.809763 16:0.154812 17:-0.502199 18:-0.314869 19:0.669371 20:0.121573 
-4.917994063366121 -0 1:0.151697 2:-0.794743 3:-0.0640193 4:-0.632671 5:-0.156954 6:-1 7:-0.0738878 8:0.195532 9:-0.528014 10:-0.454664 11:-0.307093 12:-0.0233981 13:-1 14:-0.332766 15:-0.871017 16:0.276596 17:-0.746863 18:-0.0883177 19:0.476335 20:-0.416456 
-4.231450404276756 -0.5307775478721234 1:0.164107 2:-0.140618 3:-0.42881 4:-0.767551 5:0.150939 6:-0.770552 7:0.335192 8:-0.489611 9:-0.820645 10:-0.101463 11:-0.272985 12:0.170334 13:-1 14:-0.759509 15:-0.814042 16:0.546012 17:-1 18:0.307797 19:-0.361462 20:-0.17933 
-0 -8 1:0.0172414 2:-0.625099 3:-0.520676 4:-0.725466 5:-0.399289 6:-0.779568 7:0.187712 8:-0.240463 9:-0.304375 10:-0.568384 11:-0.455313 12:-0.044772 13:-0.959971 14:-0.614931 15:-0.761799 16:0.273084 17:-0.532517 18:-0.142129 19:0.192815 20:0.815255 
-8 -8 1:-0.517753 2:0.385183 3:-0.302359 4:-0.304786 5:-0.240619 6:-0.465714 7:-0.654545 8:-0.229193 9:-0.213642 10:0.830769 11:-0.979881 12:-0.679388 13:-0.417857 14:-0.58 15:0.190794 16:-0.657143 17:-0.575092 18:0.203384 19:-0.62828 20:-0.159091 
-8 -8 1:-0.282686 2:-0.428137 3:-0.394272 4:-0.569948 5:-0.469421 6:-0.400641 7:0.0850816 8:0.0649726 9:0.0997596 10:0.056213 11:-0.64963 12:0.282957 13:-0.542869 14:-0.308974 15:0.165812 16:-0.846154 17:-0.694938 18:-0.472417 19:-0.833203 20:0.433029 
-8 -4.913920151360784 1:0.642346 2:-0.0349425 3:-0.00830738 4:-0.48221 5:-0.769965 6:-0.666071 7:-0.352273 8:-0.229193 9:-0.687463 10:-0.182692 11:-0.652102 12:-0.338462 13:-0.81808 14:-0.65 15:0.217857 16:-0.0892857 17:-0.946886 18:0.410216 19:-0.303025 20:-0.375094 
-8 -8 1:0.116542 2:-0.257362 3:-0.0663389 4:-0.280931 5:-0.581924 6:-1 7:-0.482742 8:0.341363 9:-0.176824 10:-0.216783 11:-0.527857 12:-0.0883764 13:-0.891043 14:-0.580749 15:-0.0679739 16:-0.262032 17:-0.650075 18:-0.153081 19:-0.721707 20:-0.0826446 
-8 -8 1:-0.312613 2:-0.166232 3:-0.638418 4:-0.672308 5:-0.391861 6:-0.165179 7:-0.40625 8:0.451985 9:0.327868 10:0.307692 11:-0.507493 12:-0.634919 13:-0.90904 14:-0.65 15:-0.0189484 16:-0.678571 17:-0.25641 18:-0.550074 19:-0.457908 20:-0.178728 
-8 -2.801765229236487 1:-0.386148 2:-0.201039 3:0.260344 4:-0.323648 5:0.132209 6:-0.826047 7:-0.212685 8:-0.7041 9:-0.614827 10:-0.148479 11:-0.3306 12:-0.381552 13:-0.810465 14:-0.635349 15:-0.788527 16:0.00465116 17:-0.833989 18:-0.0604809 19:0.775036 20:0.0710685 
-8 -8 1:1 2:-0.427803 3:-0.412065 4:-0.445948 5:-0.585932 6:-0.669027 7:-0.572003 8:-0.0498302 9:-0.165036 10:-0.189925 11:-0.75192 12:-0.370163 13:-0.579277 14:-0.248378 15:-0.374107 16:-0.292035 17:-0.50866 18:-0.0434542 19:-0.385949 20:-0.220723 
-8 -5.84922771260702 1:-0.252416 2:-0.36047 3:-0.159923 4:-0.551871 5:-0.0262769 6:-0.256954 7:0.4413 8:0.325436 9:-0.430348 10:-0.151299 11:-0.490574 12:-0.274164 13:-0.460265 14:-0.870199 15:-0.698896 16:-0.284768 17:-0.448463 18:0.100066 19:-0.310718 20:-0.676145 
-8 -8 1:0.091397 2:-0.147659 3:-0.81601 4:-0.365782 5:-0.545562 6:-0.619919 7:-0.45935 8:-0.266502 9:0.409629 10:0.302376 11:-0.761048 12:-0.208913 13:-0.83435 14:-0.482114 15:0.139747 16:-0.439024 17:-0.516364 18:-0.508636 19:-0.64742 20:0.216399 
-8 -8 1:0.00965639 2:-0.13091 3:-0.561653 4:-0.539465 5:-0.771884 6:-0.905076 7:-0.447623 8:0.29493 9:0.347502 10:-0.163608 11:-0.668251 12:-0.142455 13:-0.948287 14:-0.651777 15:-0.115285 16:-0.329949 17:-0.547052 18:-0.248976 19:-0.471667 20:0.0809343 
-8 -8 1:-0.546774 2:-0.209456 3:-0.273636 4:-0.679132 5:-0.659442 6:-0.0410256 7:0.0540793 8:-0.0173939 9:0.196954 10:-0.201972 11:-0.525044 12:-0.217219 13:-0.947756 14:-0.849231 15:0.0103704 16:-0.446154 17:-0.176331 18:-0.620912 19:-0.688645 20:0.545813 
-1.865883703783837 -0 1:-0.0650312 2:-0.36662 3:-0.373108 4:-0.155376 5:-0.0336571 6:-0.859398 7:1 8:-0.833008 9:-0.934298 10:-0.518219 11:-0.48466 12:-0.279951 13:-0.846805 14:-0.557895 15:-0.658145 16:0.533835 17:-0.642182 18:-0.46843 19:0.369495 20:0.72559 
-8 -8 1:-0.236517 2:-0.684227 3:-0.5875 4:-0.255629 5:-0.139792 6:0.133333 7:-0.162534 8:-0.333489 9:-0.469159 10:-0.128205 11:-0.432998 12:-0.506904 13:-0.294372 14:-0.575758 15:0.180952 16:-0.532468 17:-0.021423 18:0.00282008 19:0.126425 20:-0.687494 
-0 -3.347461985476163 1:-0.203402 2:-0.59467 3:-0.264434 4:-0.314956 5:-0.484313 6:-0.062069 7:0.061271 8:-0.168055 9:-0.743997 10:-0.426091 11:-0.287936 12:0.459601 13:-1 14:-0.754232 15:-0.477395 16:0.0909091 17:-0.62704 18:-0.64432 19:0.359478 20:0.533792 
-0 -1.298494790134475 1:0.0995949 2:-0.546731 3:-0.485664 4:-0.771773 5:-0.506438 6:-0.546667 7:0.538843 8:-0.354348 9:-0.661384 10:-0.22331 11:-0.283423 12:-0.348793 13:-0.876515 14:-0.465455 15:-0.77037 16:0.490909 17:-0.639472 18:-0.462775 19:0.366729 20:0.474041 
-0 -3.744052204144145 1:-0.0465444 2:-0.633488 3:-0.686194 4:-0.703703 5:-0.341081 6:0.561162 7:-0.122257 8:0.693185 9:-0.216871 10:-0.169342 11:-0.213115 12:-0.64151 13:-0.778131 14:-0.57314 15:-0.147328 16:-0.738657 17:-0.395412 18:-0.76444 19:0.0389274 20:0.417677 
-0.3131550082733787 -8 1:-0.0759489 2:0.104199 3:-0.593394 4:-0.659472 5:-0.467238 6:-0.759486 7:-0.144695 8:0.32783 9:-0.244237 10:-0.0581252 11:0.18517 12:-0.299618 13:-0.868971 14:-0.558842 15:-0.463951 16:-0.614148 17:-0.50268 18:-0.629643 19:-0.163331 20:-0.410136 
-0 -8 1:-0.16853 2:-0.2543 3:-0.597113 4:-0.529688 5:-0.0237951 6:-0.779351 7:0.28399 8:-0.476241 9:-0.101141 10:-0.0819151 11:-0.210456 12:-0.125302 13:-0.879794 14:-0.768732 15:-0.552933 16:-0.256637 17:-0.649043 18:-0.824411 19:0.790982 20:-0.090971 
-0.05763577246527419 -8 1:-0.270212 2:-0.349422 3:-0.877524 4:-0.949858 5:-0.776598 6:-0.289181 7:-0.540404 8:0.361203 9:0.332392 10:0.28475 11:-0.281701 12:-0.158594 13:-0.40424 14:-0.426901 15:0.28512 16:-0.649123 17:-0.495577 18:-0.731073 19:-0.670307 20:-0.0369075 
-0 -8 1:-0.37417 2:-0.684572 3:-0.773701 4:-0.154653 5:-0.19214 6:0.181941 7:0.0371434 8:0.327597 9:0.00306701 10:-0.0908144 11:-0.329806 12:0.0454928 13:-0.724041 14:-0.557562 15:-0.247354 16:-0.593679 17:-0.543439 18:-0.617273 19:0.0964205 20:-0.315475 
-2.444259514361584 -8 1:0.321114 2:-0.840594 3:-0.196929 4:-0.447918 5:-0.685447 6:-0.434286 7:0.0566845 8:0.135226 9:-0.145384 10:-0.107692 11:-0.371958 12:-0.0934494 13:-0.828782 14:-0.604706 15:-0.261326 16:-0.47563 17:-0.620082 18:-0.686513 19:0.195335 20:0.21978 
-2.825104397096489 -0 1:-0.184608 2:-0.442681 3:-0.427865 4:-0.732249 5:-0.289671 6:-0.172973 7:0.158588 8:-0.133355 9:-0.341179 10:-0.55018 11:-0.139281 12:0.192356 13:-0.749693 14:-0.518428 15:-0.627628 16:-0.646192 17:-0.313047 18:-0.0358988 19:0.044226 20:-0.0699301 
-2.230466195962386 -0 1:-0.155283 2:-0.446013 3:0.0351485 4:-0.809965 5:-0.372304 6:-0.879095 7:-0.426724 8:0.0773986 9:-0.577427 10:-0.782991 11:-0.331304 12:0.152225 13:-0.934133 14:-0.788793 15:-0.526389 16:0.0732759 17:-0.602564 18:-0.198562 19:0.738432 20:0.16322 
-8 -8 1:-0.111544 2:-0.31234 3:-0.811818 4:-0.688106 5:-0.364927 6:0.229589 7:0.291905 8:-0.0563205 9:-0.343986 10:0.128556 11:-0.424162 12:-0.289527 13:-0.832534 14:-0.463014 15:0.0588128 16:-0.654795 17:-0.429575 18:-0.308231 19:-0.144535 20:-0.0235176 
-8 -8 1:-0.212231 2:-0.394356 3:-0.677268 4:-0.541547 5:-0.138334 6:-0.0812139 7:-0.231214 8:0.0161716 9:-0.295919 10:0.375723 11:-0.416381 12:-0.21808 13:-0.911669 14:-0.46185 15:0.160758 16:-0.549133 17:-0.518601 18:-0.569288 19:-0.197829 20:0.107876 
-0 -6.884807805609618 1:-0.190787 2:-0.525089 3:-0.638418 4:-0.270991 5:-0.475884 6:-0.332143 7:0.103535 8:-0.165457 9:-0.101902 10:-0.273504 11:0.0870081 12:0.295626 13:-0.75744 14:-0.572222 15:-0.759436 16:-0.571429 17:-0.339031 18:-0.492621 19:-0.0706997 20:-0.0805445 
-0 -8 1:-0.0045189 2:-0.549908 3:-0.360032 4:-0.66616 5:-0.561072 6:0.18495 7:-0.138074 8:0.213803 9:-0.297128 10:-0.166184 11:-0.278888 12:0.0955094 13:-1 14:-0.650693 15:-0.369769 16:-0.572277 17:-0.552374 18:-0.625113 19:0.305314 20:0.265527 
-6.910621850619251 -3.257482520221925 1:0.0298943 2:-0.288003 3:-0.573046 4:-0.732924 5:-0.638904 6:-0.670968 7:-0.418502 8:0.89383 9:0.228958 10:-0.591969 11:-0.500849 12:-0.394233 13:-1 14:-0.586158 15:-0.155556 16:-0.683284 17:-0.525498 18:-0.38999 19:-0.328506 20:0.79222 
-3.716518196920553 -8 1:-0.0613446 2:-0.490648 3:-0.687677 4:-0.468588 5:-0.458368 6:-0.512704 7:0.0239858 8:0.193083 9:-0.302088 10:-0.165122 11:-0.25486 12:0.144125 13:-0.933632 14:-0.553094 15:-0.259501 16:-0.179153 17:-0.4962 18:-0.406428 19:-0.321944 20:-0.0408875 
-3.19816558269593 -2.628622507283373 1:-0.438689 2:-0.422905 3:-0.598219 4:-0.300905 5:0.016998 6:-0.0157895 7:0.38843 8:-0.723223 9:-0.027463 10:-0.343025 11:-0.333363 12:0.196649 13:-0.805024 14:-0.67177 15:-0.528655 16:-0.397129 17:-0.629984 18:-0.18568 19:0.327995 20:-0.101215 
