svm_type c_svc
kernel_type rbf
gamma 0.0078125
nr_class 2
total_sv 10
rho -0.151944
label 0 1
nr_sv 5 5
SV
32 1:-0.854077 2:-0.990971 
32 1:-0.948498 2:-1 
30.45697999266304 1:-0.965665 2:-1 
32 1:-0.965665 2:-1 
32 1:-0.93133 2:-1 
-32 1:-0.793991 2:-0.989466 
-30.45697999266304 1:0.107296 2:-0.306245 
-32 1:-0.236051 2:-0.622272 
-32 1:-0.055794 2:-0.420617 
-32 1:-0.93133 2:-1 
